<?xml version="1.0"?>
<opencv_storage>
<cascade>
  <stageType>BOOST</stageType>
  <featureType>LBP</featureType>
  <height>24</height>
  <width>24</width>
  <stageParams>
    <boostType>GAB</boostType>
    <minHitRate>9.9500000476837158e-01</minHitRate>
    <maxFalseAlarm>5.0000000000000000e-01</maxFalseAlarm>
    <weightTrimRate>9.4999999999999996e-01</weightTrimRate>
    <maxDepth>1</maxDepth>
    <maxWeakCount>100</maxWeakCount></stageParams>
  <featureParams>
    <maxCatCount>256</maxCatCount>
    <featSize>1</featSize></featureParams>
  <stageNum>21</stageNum>
  <stages>
    <!-- stage 0 -->
    <_>
      <maxWeakCount>1</maxWeakCount>
      <stageThreshold>9.7552448511123657e-01</stageThreshold>
      <weakClassifiers>
        <_>
          <internalNodes>
            0 -1 1 -1 -16777586 -2 -184550417 -722141196 1423234144
            335369484 1077936128</internalNodes>
          <leafValues>
            -7.0588237047195435e-01 9.7552448511123657e-01</leafValues></_></weakClassifiers></_>
    <!-- stage 1 -->
    <_>
      <maxWeakCount>1</maxWeakCount>
      <stageThreshold>9.7711080312728882e-01</stageThreshold>
      <weakClassifiers>
        <_>
          <internalNodes>
            0 -1 42 84738048 117638914 -939577369 263188391 84219277
            252182415 223294974 252694447</internalNodes>
          <leafValues>
            -6.2566846609115601e-01 9.7711080312728882e-01</leafValues></_></weakClassifiers></_>
    <!-- stage 2 -->
    <_>
      <maxWeakCount>3</maxWeakCount>
      <stageThreshold>-9.4823576509952545e-02</stageThreshold>
      <weakClassifiers>
        <_>
          <internalNodes>
            0 -1 53 2147483630 -134283266 -16842756 10682354 -34
            -849346691 -52 1078132714</internalNodes>
          <leafValues>
            -4.5454546809196472e-01 9.7705185413360596e-01</leafValues></_>
        <_>
          <internalNodes>
            0 -1 7 525322191 2079788799 456072987 456072975 1139629818
            1006108479 4194817 324490251</internalNodes>
          <leafValues>
            -6.4118385314941406e-01 9.3518513441085815e-01</leafValues></_>
        <_>
          <internalNodes>
            0 -1 43 -17769024 -349129712 -268954128 -182390480 -13447966
            -1120863120 -30272352 -1146892101</internalNodes>
          <leafValues>
            -5.7546323537826538e-01 9.2080247402191162e-01</leafValues></_></weakClassifiers></_>
    <!-- stage 3 -->
    <_>
      <maxWeakCount>1</maxWeakCount>
      <stageThreshold>9.7114598751068115e-01</stageThreshold>
      <weakClassifiers>
        <_>
          <internalNodes>
            0 -1 4 -29 -286326934 -268435466 -290783236 -10 -957415434
            -134220316 -732891792</internalNodes>
          <leafValues>
            -6.2580645084381104e-01 9.7114598751068115e-01</leafValues></_></weakClassifiers></_>
    <!-- stage 4 -->
    <_>
      <maxWeakCount>4</maxWeakCount>
      <stageThreshold>8.6029684543609619e-01</stageThreshold>
      <weakClassifiers>
        <_>
          <internalNodes>
            0 -1 52 -823210484 -16842754 -21037082 1895366334 -16842780
            -587202963 -2068 -260898818</internalNodes>
          <leafValues>
            -3.7688443064689636e-01 9.7357034683227539e-01</leafValues></_>
        <_>
          <internalNodes>
            0 -1 40 -251141888 -786039039 766484480 -1648656391
            -1476929999 -1657274602 1574294544 -1650720849</internalNodes>
          <leafValues>
            -5.0566750764846802e-01 9.3345564603805542e-01</leafValues></_>
        <_>
          <internalNodes>
            0 -1 38 -1094975573 925085244 -1342197841 -1615876177
            2126505101 -1598837491 212632712 17793163</internalNodes>
          <leafValues>
            -5.0074720382690430e-01 9.2403614521026611e-01</leafValues></_>
        <_>
          <internalNodes>
            0 -1 12 -760749329 -803787217 7209519 -2002547985 -959019831
            1280724751 1290667727 -62132593</internalNodes>
          <leafValues>
            -5.2318489551544189e-01 8.9314126968383789e-01</leafValues></_></weakClassifiers></_>
    <!-- stage 5 -->
    <_>
      <maxWeakCount>3</maxWeakCount>
      <stageThreshold>1.0945495367050171e+00</stageThreshold>
      <weakClassifiers>
        <_>
          <internalNodes>
            0 -1 13 1970664736 1440019829 17825588 -1056898959
            -134877120 8423413 0 356843713</internalNodes>
          <leafValues>
            -6.8000000715255737e-01 9.6637684106826782e-01</leafValues></_>
        <_>
          <internalNodes>
            0 -1 6 -536883969 1342113759 -268546088 536809215
            -1879321092 469189751 103829354 1601391686</internalNodes>
          <leafValues>
            -5.6330311298370361e-01 9.1645717620849609e-01</leafValues></_>
        <_>
          <internalNodes>
            0 -1 43 -6103664 -478192 -268954128 -181342160 -13595616
            -307168014 -1104096214 -399781317</internalNodes>
          <leafValues>
            -6.8925547599792480e-01 8.5809236764907837e-01</leafValues></_></weakClassifiers></_>
    <!-- stage 6 -->
    <_>
      <maxWeakCount>3</maxWeakCount>
      <stageThreshold>1.2157448530197144e+00</stageThreshold>
      <weakClassifiers>
        <_>
          <internalNodes>
            0 -1 56 2130640700 -65539 -65802 2130509694 -196796
            -19071107 -196656 -765919532</internalNodes>
          <leafValues>
            -4.8750001192092896e-01 9.6949940919876099e-01</leafValues></_>
        <_>
          <internalNodes>
            0 -1 11 -1069514614 -890565110 -198030774 -351729554
            -858979633 72224462 -419967265 -1018441985</internalNodes>
          <leafValues>
            -5.0440871715545654e-01 9.1882926225662231e-01</leafValues></_>
        <_>
          <internalNodes>
            0 -1 24 -1930558460 536675342 -242154 1305414669 82575488
            1693189126 1475612383 1602176127</internalNodes>
          <leafValues>
            -6.7258375883102417e-01 8.4539955854415894e-01</leafValues></_></weakClassifiers></_>
    <!-- stage 7 -->
    <_>
      <maxWeakCount>4</maxWeakCount>
      <stageThreshold>5.8103597164154053e-01</stageThreshold>
      <weakClassifiers>
        <_>
          <internalNodes>
            0 -1 49 -1063220148 -1058996484 -285278210 15761404
            -51055108 -184746113 2147287007 -2147418114</internalNodes>
          <leafValues>
            -6.2406015396118164e-01 9.6704190969467163e-01</leafValues></_>
        <_>
          <internalNodes>
            0 -1 47 -1610375008 271687984 -167804939 1430076281
            -1086327501 926613282 2113896443 -138682383</internalNodes>
          <leafValues>
            -5.9661138057708740e-01 9.1189277172088623e-01</leafValues></_>
        <_>
          <internalNodes>
            0 -1 17 -85271822 -118560534 -1157977348 -1444165144
            -923757464 -386891584 -1296893222 -105934613</internalNodes>
          <leafValues>
            -5.0211608409881592e-01 9.0148514509201050e-01</leafValues></_>
        <_>
          <internalNodes>
            0 -1 57 -805125945 1360068736 16842832 -800059392 17399952
            276824072 327188984 -98380840</internalNodes>
          <leafValues>
            -7.0808184146881104e-01 7.9531943798065186e-01</leafValues></_></weakClassifiers></_>
    <!-- stage 8 -->
    <_>
      <maxWeakCount>3</maxWeakCount>
      <stageThreshold>1.1318770647048950e+00</stageThreshold>
      <weakClassifiers>
        <_>
          <internalNodes>
            0 -1 28 543498784 575939302 -1342231894 804236031 1937716002
            930559612 2137866041 1057767231</internalNodes>
          <leafValues>
            -6.3934427499771118e-01 9.6522951126098633e-01</leafValues></_>
        <_>
          <internalNodes>
            0 -1 44 404761600 -2013237728 -39834752 924892968
            -1172132096 -1104466140 797880232 1068203963</internalNodes>
          <leafValues>
            -5.8017027378082275e-01 9.1273611783981323e-01</leafValues></_>
        <_>
          <internalNodes>
            0 -1 8 -13922549 -81653981 -270073873 -77583838 -30285830
            436229920 2132005999 1460676419</internalNodes>
          <leafValues>
            -6.6715651750564575e-01 8.5848528146743774e-01</leafValues></_></weakClassifiers></_>
    <!-- stage 9 -->
    <_>
      <maxWeakCount>3</maxWeakCount>
      <stageThreshold>1.2313156127929688e+00</stageThreshold>
      <weakClassifiers>
        <_>
          <internalNodes>
            0 -1 57 -540966401 -293703809 -258 1113786 1073741564 524288
            -1869609408 35328</internalNodes>
          <leafValues>
            -7.5409835577011108e-01 9.6685212850570679e-01</leafValues></_>
        <_>
          <internalNodes>
            0 -1 37 -253574526 -522133522 -419758552 846389214
            1450209280 1884313463 -1235159485 1895956294</internalNodes>
          <leafValues>
            -5.9860533475875854e-01 9.1317087411880493e-01</leafValues></_>
        <_>
          <internalNodes>
            0 -1 10 1079485134 321981455 1618641662 708242174 4653276
            -856289716 -184694017 -938225666</internalNodes>
          <leafValues>
            -6.4870733022689819e-01 8.8737523555755615e-01</leafValues></_></weakClassifiers></_>
    <!-- stage 10 -->
    <_>
      <maxWeakCount>3</maxWeakCount>
      <stageThreshold>1.1121256351470947e+00</stageThreshold>
      <weakClassifiers>
        <_>
          <internalNodes>
            0 -1 25 -1565901578 1660579838 -1091502084 178269872
            -1430717700 -17661955 32904 0</internalNodes>
          <leafValues>
            -7.4358975887298584e-01 9.6571296453475952e-01</leafValues></_>
        <_>
          <internalNodes>
            0 -1 32 84677632 -5493060 805187309 -1078182867 -1092797448
            1610432508 1056779784 151521280</internalNodes>
          <leafValues>
            -5.1289355754852295e-01 9.3981337547302246e-01</leafValues></_>
        <_>
          <internalNodes>
            0 -1 23 753798186 787221724 -16790356 1610100265 -2075917176
            217859276 72680605 -671128482</internalNodes>
          <leafValues>
            -6.1709761619567871e-01 9.1590195894241333e-01</leafValues></_></weakClassifiers></_>
    <!-- stage 11 -->
    <_>
      <maxWeakCount>3</maxWeakCount>
      <stageThreshold>1.1961015462875366e+00</stageThreshold>
      <weakClassifiers>
        <_>
          <internalNodes>
            0 -1 39 -16908040 1895055484 179176096 196 -48240 1358263925
            805249983 84219391</internalNodes>
          <leafValues>
            -4.1293531656265259e-01 9.7473388910293579e-01</leafValues></_>
        <_>
          <internalNodes>
            0 -1 14 1219625090 225381580 2059075199 1602093051
            -2135127924 -924889890 2132999935 -1094746113</internalNodes>
          <leafValues>
            -6.5431052446365356e-01 9.3010526895523071e-01</leafValues></_>
        <_>
          <internalNodes>
            0 -1 54 -5319283 1423824116 -50340612 74308799 -2136177467
            -1930083116 -2046896956 15721600</internalNodes>
          <leafValues>
            -7.0873755216598511e-01 8.8506174087524414e-01</leafValues></_></weakClassifiers></_>
    <!-- stage 12 -->
    <_>
      <maxWeakCount>3</maxWeakCount>
      <stageThreshold>1.2458477020263672e+00</stageThreshold>
      <weakClassifiers>
        <_>
          <internalNodes>
            0 -1 27 -537251964 -1129705566 -2216066 973090560 285213168
            1073741824 16778056 50333186</internalNodes>
          <leafValues>
            -4.5664739608764648e-01 9.7108548879623413e-01</leafValues></_>
        <_>
          <internalNodes>
            0 -1 2 -513 -1895887105 -1 -838889473 -553693444 218038780
            -553696103 157221072</internalNodes>
          <leafValues>
            -6.1300683021545410e-01 9.1450840234756470e-01</leafValues></_>
        <_>
          <internalNodes>
            0 -1 55 -551423341 -408551647 -134220192 -1380319952
            -2139220608 -2078411405 1146471680 -2053782191</internalNodes>
          <leafValues>
            -6.3330131769180298e-01 8.8776904344558716e-01</leafValues></_></weakClassifiers></_>
    <!-- stage 13 -->
    <_>
      <maxWeakCount>3</maxWeakCount>
      <stageThreshold>1.2402067184448242e+00</stageThreshold>
      <weakClassifiers>
        <_>
          <internalNodes>
            0 -1 16 1086720074 49704675 -353235426 -1541378514 116674022
            1290751871 -53064627 -332304527</internalNodes>
          <leafValues>
            -2.7188938856124878e-01 9.7374898195266724e-01</leafValues></_>
        <_>
          <internalNodes>
            0 -1 31 71570772 503059542 232523588 165496103 773111703
            -1342619779 22380498 687153706</internalNodes>
          <leafValues>
            -4.3131968379020691e-01 9.4153362512588501e-01</leafValues></_>
        <_>
          <internalNodes>
            0 -1 20 1328938342 -851978 -151 -12 536870909 1861156853
            1423295873 -706751020</internalNodes>
          <leafValues>
            -6.7507588863372803e-01 8.5460442304611206e-01</leafValues></_></weakClassifiers></_>
    <!-- stage 14 -->
    <_>
      <maxWeakCount>3</maxWeakCount>
      <stageThreshold>1.1440401077270508e+00</stageThreshold>
      <weakClassifiers>
        <_>
          <internalNodes>
            0 -1 34 -12 -131092 -65540 1039990252 -589963820 890598836
            620612800 75826176</internalNodes>
          <leafValues>
            -3.3018869161605835e-01 9.7446709871292114e-01</leafValues></_>
        <_>
          <internalNodes>
            0 -1 36 536870944 -1599979502 4188 17301504 8705 -2122186749
            1107378180 -1093959536</internalNodes>
          <leafValues>
            -7.0901006460189819e-01 9.1686260700225830e-01</leafValues></_>
        <_>
          <internalNodes>
            0 -1 29 555918952 187957024 1819258623 926871295 1059897257
            758431661 208085570 241838125</internalNodes>
          <leafValues>
            -6.0769623517990112e-01 8.7858307361602783e-01</leafValues></_></weakClassifiers></_>
    <!-- stage 15 -->
    <_>
      <maxWeakCount>4</maxWeakCount>
      <stageThreshold>5.8014774322509766e-01</stageThreshold>
      <weakClassifiers>
        <_>
          <internalNodes>
            0 -1 15 -1062076288 -893497624 -2132800860 39889646
            1279658506 249448030 -655192865 -872354049</internalNodes>
          <leafValues>
            -3.2653060555458069e-01 9.7194296121597290e-01</leafValues></_>
        <_>
          <internalNodes>
            0 -1 51 207768704 -825430452 -285278220 1441333228
            -235085825 -168230916 -822083586 -1277673474</internalNodes>
          <leafValues>
            -5.3526854515075684e-01 9.2390602827072144e-01</leafValues></_>
        <_>
          <internalNodes>
            0 -1 22 -89207128 -658965252 -1157972312 -1465262664
            -34550768 -1996923664 -906964748 -113642645</internalNodes>
          <leafValues>
            -5.7689487934112549e-01 9.1516143083572388e-01</leafValues></_>
        <_>
          <internalNodes>
            0 -1 46 -1610563512 268795904 -2147479424 1358954513
            1073741952 948043776 1073842306 12837003</internalNodes>
          <leafValues>
            -7.3880636692047119e-01 7.7930968999862671e-01</leafValues></_></weakClassifiers></_>
    <!-- stage 16 -->
    <_>
      <maxWeakCount>3</maxWeakCount>
      <stageThreshold>1.1379532814025879e+00</stageThreshold>
      <weakClassifiers>
        <_>
          <internalNodes>
            0 -1 26 -285413650 1155591662 -286462236 1287972582
            1157287372 1147459572 -858862392 1153750270</internalNodes>
          <leafValues>
            -2.7102804183959961e-01 9.7328960895538330e-01</leafValues></_>
        <_>
          <internalNodes>
            0 -1 21 218015591 -1167441 -1610891476 715303458 -587856562
            -736096345 2146905987 1375748098</internalNodes>
          <leafValues>
            -4.4990199804306030e-01 9.2558890581130981e-01</leafValues></_>
        <_>
          <internalNodes>
            0 -1 45 -1090783365 -1083441282 1044348728 404782888
            255831870 1589575163 1026547114 151254189</internalNodes>
          <leafValues>
            -7.6092529296875000e-01 8.4312337636947632e-01</leafValues></_></weakClassifiers></_>
    <!-- stage 17 -->
    <_>
      <maxWeakCount>3</maxWeakCount>
      <stageThreshold>1.2233628034591675e+00</stageThreshold>
      <weakClassifiers>
        <_>
          <internalNodes>
            0 -1 3 1073742107 352321536 1 1073774848 1073741824 0 139
            -804748992</internalNodes>
          <leafValues>
            -5.4929578304290771e-01 9.6747213602066040e-01</leafValues></_>
        <_>
          <internalNodes>
            0 -1 48 1146679034 -791482370 -1090846722 1882224383
            -596574347 -195756172 -118292498 -514818217</internalNodes>
          <leafValues>
            -6.0901218652725220e-01 9.0832775831222534e-01</leafValues></_>
        <_>
          <internalNodes>
            0 -1 18 -390592328 -1996510468 -1694823800 -1979733765
            -2140108656 -2131656464 -2131525503 -2130714311</internalNodes>
          <leafValues>
            -6.5243709087371826e-01 8.8369131088256836e-01</leafValues></_></weakClassifiers></_>
    <!-- stage 18 -->
    <_>
      <maxWeakCount>3</maxWeakCount>
      <stageThreshold>1.0488015413284302e+00</stageThreshold>
      <weakClassifiers>
        <_>
          <internalNodes>
            0 -1 41 -8404801 -327885 2134851374 67777824 1061105409
            131198 2 553779202</internalNodes>
          <leafValues>
            -7.8947371244430542e-01 9.6572488546371460e-01</leafValues></_>
        <_>
          <internalNodes>
            0 -1 35 285237268 1342210050 0 285278720 -1879015296
            268439585 -1946089408 4554752</internalNodes>
          <leafValues>
            -8.2043135166168213e-01 8.8795834779739380e-01</leafValues></_>
        <_>
          <internalNodes>
            0 -1 19 -957476685 1413443119 -151343489 312536046 -8516538
            -280494266 1861901944 -1018986793</internalNodes>
          <leafValues>
            -5.5289077758789063e-01 9.0350800752639771e-01</leafValues></_></weakClassifiers></_>
    <!-- stage 19 -->
    <_>
      <maxWeakCount>3</maxWeakCount>
      <stageThreshold>1.1242836713790894e+00</stageThreshold>
      <weakClassifiers>
        <_>
          <internalNodes>
            0 -1 0 71823360 65568 32788 1078263809 41136 8388640
            16777252 1103106176</internalNodes>
          <leafValues>
            -6.5217393636703491e-01 9.6409958600997925e-01</leafValues></_>
        <_>
          <internalNodes>
            0 -1 9 1080463450 2049081343 -1204224004 1915944959 2150552
            540081663 1076951538 973099006</internalNodes>
          <leafValues>
            -5.5330771207809448e-01 9.0954238176345825e-01</leafValues></_>
        <_>
          <internalNodes>
            0 -1 50 -12587135 -821626078 -419446797 -546373658 117436306
            -2075791513 1207293380 1180038615</internalNodes>
          <leafValues>
            -6.0516500473022461e-01 8.6691522598266602e-01</leafValues></_></weakClassifiers></_>
    <!-- stage 20 -->
    <_>
      <maxWeakCount>3</maxWeakCount>
      <stageThreshold>1.2443341016769409e+00</stageThreshold>
      <weakClassifiers>
        <_>
          <internalNodes>
            0 -1 5 458884 1073774592 0 -801112062 -2147450880 0 10 0</internalNodes>
          <leafValues>
            -8.5123968124389648e-01 9.6801483631134033e-01</leafValues></_>
        <_>
          <internalNodes>
            0 -1 33 -1934840062 -897438162 787360768 74104420
            -1653181440 1165425975 -730594303 1076021014</internalNodes>
          <leafValues>
            -6.1120021343231201e-01 9.3825078010559082e-01</leafValues></_>
        <_>
          <internalNodes>
            0 -1 30 -1078086108 723593984 -20975699 2142154414
            2147348256 708361992 -1342233973 42663946</internalNodes>
          <leafValues>
            -6.6193151473999023e-01 9.1051095724105835e-01</leafValues></_></weakClassifiers></_></stages>
  <features>
    <_>
      <rect>
        0 0 3 2</rect></_>
    <_>
      <rect>
        0 1 5 4</rect></_>
    <_>
      <rect>
        0 3 3 7</rect></_>
    <_>
      <rect>
        0 4 1 2</rect></_>
    <_>
      <rect>
        0 5 1 1</rect></_>
    <_>
      <rect>
        0 5 1 3</rect></_>
    <_>
      <rect>
        0 7 3 4</rect></_>
    <_>
      <rect>
        0 7 4 4</rect></_>
    <_>
      <rect>
        0 8 2 2</rect></_>
    <_>
      <rect>
        0 12 2 4</rect></_>
    <_>
      <rect>
        0 14 3 3</rect></_>
    <_>
      <rect>
        0 14 4 3</rect></_>
    <_>
      <rect>
        0 16 3 2</rect></_>
    <_>
      <rect>
        1 0 3 2</rect></_>
    <_>
      <rect>
        1 12 3 4</rect></_>
    <_>
      <rect>
        1 15 3 3</rect></_>
    <_>
      <rect>
        1 18 4 2</rect></_>
    <_>
      <rect>
        2 5 3 3</rect></_>
    <_>
      <rect>
        2 6 4 3</rect></_>
    <_>
      <rect>
        2 21 2 1</rect></_>
    <_>
      <rect>
        3 3 1 1</rect></_>
    <_>
      <rect>
        3 4 4 2</rect></_>
    <_>
      <rect>
        3 5 2 3</rect></_>
    <_>
      <rect>
        3 6 2 2</rect></_>
    <_>
      <rect>
        3 6 3 2</rect></_>
    <_>
      <rect>
        3 9 2 2</rect></_>
    <_>
      <rect>
        5 0 3 2</rect></_>
    <_>
      <rect>
        5 3 2 2</rect></_>
    <_>
      <rect>
        7 6 4 6</rect></_>
    <_>
      <rect>
        9 5 4 2</rect></_>
    <_>
      <rect>
        9 5 5 2</rect></_>
    <_>
      <rect>
        9 6 2 2</rect></_>
    <_>
      <rect>
        9 11 3 1</rect></_>
    <_>
      <rect>
        11 0 1 1</rect></_>
    <_>
      <rect>
        11 0 3 3</rect></_>
    <_>
      <rect>
        11 3 3 2</rect></_>
    <_>
      <rect>
        11 18 3 2</rect></_>
    <_>
      <rect>
        12 0 2 1</rect></_>
    <_>
      <rect>
        12 4 3 2</rect></_>
    <_>
      <rect>
        12 6 4 4</rect></_>
    <_>
      <rect>
        12 18 4 2</rect></_>
    <_>
      <rect>
        14 3 3 7</rect></_>
    <_>
      <rect>
        14 11 3 3</rect></_>
    <_>
      <rect>
        15 5 2 3</rect></_>
    <_>
      <rect>
        15 6 2 2</rect></_>
    <_>
      <rect>
        15 7 3 4</rect></_>
    <_>
      <rect>
        15 10 3 2</rect></_>
    <_>
      <rect>
        15 12 3 4</rect></_>
    <_>
      <rect>
        16 0 2 2</rect></_>
    <_>
      <rect>
        17 0 2 2</rect></_>
    <_>
      <rect>
        17 21 2 1</rect></_>
    <_>
      <rect>
        18 0 2 2</rect></_>
    <_>
      <rect>
        18 3 2 1</rect></_>
    <_>
      <rect>
        18 4 2 1</rect></_>
    <_>
      <rect>
        18 8 2 2</rect></_>
    <_>
      <rect>
        18 18 2 2</rect></_>
    <_>
      <rect>
        21 4 1 1</rect></_>
    <_>
      <rect>
        21 6 1 1</rect></_></features></cascade>
</opencv_storage>
